{
  "modelo": "DiD OLS covariables + cluster SE",
  "timestamp": "2026-02-03T02:39:50.617057",
  "n_obs": 19457405,
  "n_clusters": 1597942,
  "coef_names": [
    "intercept",
    "treated",
    "post",
    "treated_post",
    "hoxdia",
    "diasem",
    "coddis__2",
    "coddis__3",
    "coddis__4",
    "coddis__5",
    "coddis__6",
    "coddis__7",
    "coddis__8",
    "coddis__9",
    "coddis__10",
    "coddis__11",
    "coddis__12",
    "coddis__13",
    "coddis__14",
    "coddis__15",
    "coddis__16",
    "coddis__17",
    "coddis__18",
    "coddis__19",
    "coddis__20",
    "coddis__21",
    "coddis__22",
    "coddis__23",
    "coddis__24",
    "coddis__25",
    "coddis__26",
    "coddis__27",
    "coddis__28",
    "coddis__29",
    "coddis__30",
    "coddis__31",
    "coddis__32",
    "coddis__33",
    "coddis__34",
    "coddis__35",
    "coddis__36",
    "coddis__37",
    "coddis__38",
    "coddis__39",
    "coddis__40",
    "coddis__41",
    "coddis__42",
    "coddis__43",
    "coddis__44",
    "coddis__101",
    "coddis__102",
    "coddis__103",
    "coddis__104",
    "coddis__105",
    "coddis__106",
    "coddis__107",
    "coddis__716",
    "codcat__102",
    "codcat__103",
    "codcat__104",
    "codcat__105",
    "codtis__2",
    "codtis__3",
    "codmof__L",
    "codmof__P"
  ],
  "coef": [
    40.10966877189466,
    -0.533211407193531,
    0.09854086143351085,
    0.3986461986838703,
    0.08819911391187542,
    0.04738993995285934,
    -3.050595725969256,
    -0.04463287136812145,
    -0.7797014118096532,
    -1.406360152003958,
    -1.248985874436652,
    -0.11584103626469185,
    2.263065866982775,
    3.5807689825586615,
    1.6609810931071718,
    1.1744489920240084,
    11.920339105910163,
    -1.0522308271246748,
    -1.6815318471359622,
    -2.720444953129543,
    0.2937331382329548,
    0.3304209596657019,
    3.0736321079943836,
    -0.9773397066916315,
    -4.3403092683498095,
    1.3921605583203804,
    -1.1170406507421686,
    -16.468373531545346,
    0.9919767485309922,
    -0.15596122307418514,
    -3.652161131483576,
    7.653763816686386,
    2.660883608035196,
    2.589480888929633,
    2.5389184872788064,
    0.3233647640111545,
    2.1820080377465825,
    5.7936704028451596,
    0.4361148586400353,
    1.1874172825584612,
    1.8465736420694363,
    3.5667828582858547,
    -1.7488298235532376,
    0.01471317041507338,
    2.9043063767819737,
    5.230861007660439,
    1.0941243419249869,
    0.8810094314825946,
    2.191764608677162,
    2.435219421930809,
    3.4912923792738373,
    7.21049459127635,
    2.0570536041535483,
    -0.9169374297127282,
    -0.056426541974266754,
    0.8512573212926842,
    -3.60441188127224,
    -26.240845475808367,
    -22.868723327768297,
    17.774318513512153,
    281.6022588759997,
    97.8429675557811,
    -27.713581449741092,
    -3.495021850138812,
    -6.021816740100836
  ],
  "std_error": [
    1.7086818111106847,
    0.05025746900405436,
    0.05796754355429237,
    0.062052661342939706,
    0.015779154112345744,
    0.08085083110428974,
    1.1069963265389462,
    0.12077018462355031,
    0.12495785645102896,
    0.17744892985888014,
    0.1287596400337715,
    0.09699211605499143,
    0.3101693338555243,
    0.20648700035342754,
    0.1999781632293327,
    0.23428676644952848,
    0.3914751811641122,
    0.10300382604438355,
    0.10616849272245897,
    0.11048485864966998,
    0.2453528351761993,
    0.11840460880462672,
    0.126197753679053,
    1.134183461406278,
    0.4589447014546288,
    0.12364945445062527,
    0.24557843120277376,
    0.4488063052872298,
    0.3277995070483313,
    0.11446576739241913,
    0.26393211646843684,
    0.18875722374431794,
    0.14042275705723103,
    0.13772010468730456,
    0.19865402161056733,
    0.11174354823731304,
    0.15237977238970205,
    0.10428967767880556,
    0.1488332399233087,
    0.12993758873098155,
    0.18643498861957636,
    0.7458666892012837,
    0.27389195949399164,
    0.09740149218227584,
    0.25349270794413004,
    0.12658366089892473,
    0.2289648105510636,
    0.11185485472418104,
    0.13609604852079604,
    0.11922900543513558,
    0.14175471780764345,
    0.4617316332084676,
    0.1650643999960308,
    0.4432425623126491,
    0.21703090663737576,
    0.15994879865697684,
    0.13632434433417684,
    1.6461298931519792,
    1.6489726661104391,
    1.87179449590436,
    5.168438739612061,
    1.2402420809389278,
    0.8512512101365407,
    0.0973860430576906,
    0.13850229810911235
  ],
  "t_stat": [
    23.474042101391834,
    -10.609595305137946,
    1.6999316409055272,
    6.424320731075749,
    5.589597090180372,
    0.5861404181699865,
    -2.7557415077491956,
    -0.3695686274492785,
    -6.239715004356038,
    -7.925436085314205,
    -9.700134872302097,
    -1.1943345601307809,
    7.296226995918631,
    17.341377309127168,
    8.305812326130715,
    5.012869526615007,
    30.449795234689425,
    -10.215453809174784,
    -15.83833210792348,
    -24.622785297265427,
    1.1971866476375193,
    2.7906089382965855,
    24.355680021145748,
    -0.8617121832122508,
    -9.457150838855238,
    11.258930049515804,
    -4.548610581439172,
    -36.69372140617725,
    3.026169128389609,
    -1.36251410903933,
    -13.837501780198588,
    40.54819023537785,
    18.949091043346485,
    18.80248998364535,
    12.780604523859031,
    2.8938114916882296,
    14.31953863381702,
    55.55363226539713,
    2.930224853431653,
    9.138366304586816,
    9.904651780988385,
    4.782064824620829,
    -6.385108298849501,
    0.15105693029362785,
    11.45715945967994,
    41.32335066401033,
    4.778569856615482,
    7.8763629317211565,
    16.1045425822356,
    20.424723103604574,
    24.62910888095737,
    15.616202297365401,
    12.46212753448359,
    -2.0687034767792674,
    -0.25999311733303754,
    5.322061362388063,
    -26.439972250566,
    -15.940932477426117,
    -13.86846719643361,
    9.495870701833892,
    54.48497564994581,
    78.89021753052346,
    -32.55629022283073,
    -35.888323833718076,
    -43.47809980276889
  ],
  "r2": 0.031667188299922544,
  "notes": "treated_post es el efecto DiD. SE cluster por codcon+codudu.",
  "covariables": {
    "categoricas": [
      "coddis",
      "codcat",
      "codtis",
      "codmof"
    ],
    "numericas": [
      "hoxdia",
      "diasem"
    ]
  }
}